<?xml version="1.0"?>
<opencv_storage>
<stage8>
  <maxWeakCount>8</maxWeakCount>
  <stageThreshold>-1.4862852096557617e+00</stageThreshold>
  <weakClassifiers>
    <_>
      <internalNodes>
        0 -1 459022 2.9339412227272987e-02</internalNodes>
      <leafValues>
        -7.1853148937225342e-01 4.5161288976669312e-01</leafValues></_>
    <_>
      <internalNodes>
        0 -1 1161281 -1.8456473480910063e-04</internalNodes>
      <leafValues>
        -8.7604814767837524e-01 2.3608358576893806e-02</leafValues></_>
    <_>
      <internalNodes>
        0 -1 1617287 -1.2200818673591129e-05</internalNodes>
      <leafValues>
        2.5135761499404907e-01 -5.1981741189956665e-01</leafValues></_>
    <_>
      <internalNodes>
        0 -1 159237 -1.8178031314164400e-03</internalNodes>
      <leafValues>
        3.8978657126426697e-01 -3.9255702495574951e-01</leafValues></_>
    <_>
      <internalNodes>
        0 -1 655199 3.4729265607893467e-03</internalNodes>
      <leafValues>
        -6.3029903173446655e-01 2.2770583629608154e-01</leafValues></_>
    <_>
      <internalNodes>
        0 -1 1514784 1.4194671166478656e-05</internalNodes>
      <leafValues>
        -6.5690571069717407e-01 2.0280566811561584e-01</leafValues></_>
    <_>
      <internalNodes>
        0 -1 1506969 5.5762496776878834e-04</internalNodes>
      <leafValues>
        1.2283807247877121e-01 -9.4929462671279907e-01</leafValues></_>
    <_>
      <internalNodes>
        0 -1 95897 4.9392562359571457e-03</internalNodes>
      <leafValues>
        -3.3894681930541992e-01 5.0303542613983154e-01</leafValues></_></weakClassifiers></stage8>
</opencv_storage>
