<?xml version="1.0"?>
<opencv_storage>
<stage17>
  <maxWeakCount>6</maxWeakCount>
  <stageThreshold>-1.7083241939544678e+00</stageThreshold>
  <weakClassifiers>
    <_>
      <internalNodes>
        0 -1 20542 2.0520400255918503e-02</internalNodes>
      <leafValues>
        -8.5596221685409546e-01 -1.9220055639743805e-01</leafValues></_>
    <_>
      <internalNodes>
        0 -1 78038 3.1187839806079865e-02</internalNodes>
      <leafValues>
        2.5469062849879265e-02 -1.</leafValues></_>
    <_>
      <internalNodes>
        0 -1 766035 -1.1194853868801147e-05</internalNodes>
      <leafValues>
        3.0585628747940063e-01 -4.0506932139396667e-01</leafValues></_>
    <_>
      <internalNodes>
        0 -1 948167 8.9810434728860855e-03</internalNodes>
      <leafValues>
        -7.0226925611495972e-01 1.7904734611511230e-01</leafValues></_>
    <_>
      <internalNodes>
        0 -1 1345137 -1.1543575965333730e-05</internalNodes>
      <leafValues>
        2.7512058615684509e-01 -4.2128401994705200e-01</leafValues></_>
    <_>
      <internalNodes>
        0 -1 2002244 -1.2322186958044767e-03</internalNodes>
      <leafValues>
        5.7679051160812378e-01 -2.3052507638931274e-01</leafValues></_></weakClassifiers></stage17>
</opencv_storage>
