<?xml version="1.0"?>
<opencv_storage>
<stage1>
  <maxWeakCount>5</maxWeakCount>
  <stageThreshold>-1.7991180419921875e+00</stageThreshold>
  <weakClassifiers>
    <_>
      <internalNodes>
        0 -1 202995 1.6949982941150665e-01</internalNodes>
      <leafValues>
        -7.8512394428253174e-01 5.2136754989624023e-01</leafValues></_>
    <_>
      <internalNodes>
        0 -1 1519707 -1.3614166164188646e-05</internalNodes>
      <leafValues>
        1.7455536127090454e-01 -8.4769231081008911e-01</leafValues></_>
    <_>
      <internalNodes>
        0 -1 812203 7.8258644789457321e-03</internalNodes>
      <leafValues>
        -8.6047977209091187e-01 2.6070880889892578e-01</leafValues></_>
    <_>
      <internalNodes>
        0 -1 88911 -3.8402550853788853e-03</internalNodes>
      <leafValues>
        4.6284890174865723e-01 -5.8466804027557373e-01</leafValues></_>
    <_>
      <internalNodes>
        0 -1 1349239 2.9064978662063368e-05</internalNodes>
      <leafValues>
        -8.8985949754714966e-01 2.6004865765571594e-01</leafValues></_></weakClassifiers></stage1>
</opencv_storage>
