<?xml version="1.0"?>
<opencv_storage>
<stage16>
  <maxWeakCount>10</maxWeakCount>
  <stageThreshold>-1.4828377962112427e+00</stageThreshold>
  <weakClassifiers>
    <_>
      <internalNodes>
        0 -1 1979415 6.2136398628354073e-04</internalNodes>
      <leafValues>
        -7.0376712083816528e-01 7.3684209585189819e-01</leafValues></_>
    <_>
      <internalNodes>
        0 -1 1461391 -2.8963977820239961e-04</internalNodes>
      <leafValues>
        1.9233717024326324e-01 -4.2103826999664307e-01</leafValues></_>
    <_>
      <internalNodes>
        0 -1 580256 6.2632758636027575e-04</internalNodes>
      <leafValues>
        -6.6314756870269775e-01 1.6914576292037964e-01</leafValues></_>
    <_>
      <internalNodes>
        0 -1 1410219 2.8835192788392305e-03</internalNodes>
      <leafValues>
        -2.1576577425003052e-01 5.1857060194015503e-01</leafValues></_>
    <_>
      <internalNodes>
        0 -1 77421 1.0351872333558276e-05</internalNodes>
      <leafValues>
        -2.6581400632858276e-01 3.8634586334228516e-01</leafValues></_>
    <_>
      <internalNodes>
        0 -1 832159 -9.3468592967838049e-04</internalNodes>
      <leafValues>
        4.7536951303482056e-01 -2.3413258790969849e-01</leafValues></_>
    <_>
      <internalNodes>
        0 -1 2042768 -1.5370411565527320e-03</internalNodes>
      <leafValues>
        4.0367633104324341e-01 -2.5427523255348206e-01</leafValues></_>
    <_>
      <internalNodes>
        0 -1 1230967 1.8969941884279251e-03</internalNodes>
      <leafValues>
        1.1045993119478226e-01 -8.8057619333267212e-01</leafValues></_>
    <_>
      <internalNodes>
        0 -1 1526085 1.7754624132066965e-03</internalNodes>
      <leafValues>
        -2.8159031271934509e-01 4.0403899550437927e-01</leafValues></_>
    <_>
      <internalNodes>
        0 -1 1165033 -7.2141882264986634e-04</internalNodes>
      <leafValues>
        -6.5159553289413452e-01 1.6792973875999451e-01</leafValues></_></weakClassifiers></stage16>
</opencv_storage>
