<?xml version="1.0"?>
<opencv_storage>
<stage9>
  <maxWeakCount>8</maxWeakCount>
  <stageThreshold>-1.1954926252365112e+00</stageThreshold>
  <weakClassifiers>
    <_>
      <internalNodes>
        0 -1 2030227 -4.0766940219327807e-04</internalNodes>
      <leafValues>
        2.4390244483947754e-01 -7.2419929504394531e-01</leafValues></_>
    <_>
      <internalNodes>
        0 -1 767802 -1.1309469118714333e-02</internalNodes>
      <leafValues>
        4.6177819371223450e-01 -3.8336959481239319e-01</leafValues></_>
    <_>
      <internalNodes>
        0 -1 1128338 9.2745404690504074e-03</internalNodes>
      <leafValues>
        1.8680459260940552e-01 -8.1394135951995850e-01</leafValues></_>
    <_>
      <internalNodes>
        0 -1 115518 -6.5561770461499691e-03</internalNodes>
      <leafValues>
        4.4971284270286560e-01 -3.1946182250976562e-01</leafValues></_>
    <_>
      <internalNodes>
        0 -1 1164896 -7.0850737392902374e-04</internalNodes>
      <leafValues>
        -8.0603516101837158e-01 2.2136595845222473e-01</leafValues></_>
    <_>
      <internalNodes>
        0 -1 2003373 -7.8695826232433319e-03</internalNodes>
      <leafValues>
        5.4394447803497314e-01 -2.7184030413627625e-01</leafValues></_>
    <_>
      <internalNodes>
        0 -1 1152948 -3.5183224827051163e-04</internalNodes>
      <leafValues>
        -8.7582486867904663e-01 1.4985497295856476e-01</leafValues></_>
    <_>
      <internalNodes>
        0 -1 1512029 7.8751787077635527e-04</internalNodes>
      <leafValues>
        -6.6747099161148071e-01 2.0357935130596161e-01</leafValues></_></weakClassifiers></stage9>
</opencv_storage>
