<?xml version="1.0"?>
<opencv_storage>
<stage5>
  <maxWeakCount>7</maxWeakCount>
  <stageThreshold>-1.6457877159118652e+00</stageThreshold>
  <weakClassifiers>
    <_>
      <internalNodes>
        0 -1 29034 -3.7327574682421982e-04</internalNodes>
      <leafValues>
        1.2418300658464432e-01 -7.7207976579666138e-01</leafValues></_>
    <_>
      <internalNodes>
        0 -1 1467312 -1.1817242921097204e-05</internalNodes>
      <leafValues>
        6.5852798521518707e-02 -8.1392186880111694e-01</leafValues></_>
    <_>
      <internalNodes>
        0 -1 816502 2.6648675557225943e-03</internalNodes>
      <leafValues>
        -9.1387236118316650e-01 1.5134897828102112e-01</leafValues></_>
    <_>
      <internalNodes>
        0 -1 1943815 1.7295399680733681e-02</internalNodes>
      <leafValues>
        1.3258631527423859e-01 -9.7328513860702515e-01</leafValues></_>
    <_>
      <internalNodes>
        0 -1 258657 -3.1156302429735661e-03</internalNodes>
      <leafValues>
        5.9628921747207642e-01 -3.0383774638175964e-01</leafValues></_>
    <_>
      <internalNodes>
        0 -1 1994514 1.4718448743224144e-02</internalNodes>
      <leafValues>
        -2.3040337860584259e-01 7.2412598133087158e-01</leafValues></_>
    <_>
      <internalNodes>
        0 -1 1100931 -2.7702399529516697e-04</internalNodes>
      <leafValues>
        3.0663147568702698e-01 -7.6400959491729736e-01</leafValues></_></weakClassifiers></stage5>
</opencv_storage>
