<?xml version="1.0"?>
<opencv_storage>
<stage1>
  <maxWeakCount>5</maxWeakCount>
  <stageThreshold>-1.3094774484634399e+00</stageThreshold>
  <weakClassifiers>
    <_>
      <internalNodes>
        0 -1 79825 2.3207148478832096e-04</internalNodes>
      <leafValues>
        -8.1773602962493896e-01 5.3253650665283203e-01</leafValues></_>
    <_>
      <internalNodes>
        0 -1 1221316 5.1463348791003227e-04</internalNodes>
      <leafValues>
        -7.8730189800262451e-01 4.6748378872871399e-01</leafValues></_>
    <_>
      <internalNodes>
        0 -1 358365 1.0405072942376137e-02</internalNodes>
      <leafValues>
        -6.0204851627349854e-01 7.0626932382583618e-01</leafValues></_>
    <_>
      <internalNodes>
        0 -1 1094744 -3.4287853632122278e-03</internalNodes>
      <leafValues>
        4.2506512999534607e-01 -9.3644952774047852e-01</leafValues></_>
    <_>
      <internalNodes>
        0 -1 88711 -5.9745297767221928e-04</internalNodes>
      <leafValues>
        5.2574056386947632e-01 -7.6719295978546143e-01</leafValues></_></weakClassifiers></stage1>
</opencv_storage>
