<?xml version="1.0"?>
<opencv_storage>
<stage3>
  <maxWeakCount>7</maxWeakCount>
  <stageThreshold>-1.6521455049514771e+00</stageThreshold>
  <weakClassifiers>
    <_>
      <internalNodes>
        0 -1 1932414 9.9555565975606441e-04</internalNodes>
      <leafValues>
        -7.0553934574127197e-01 7.3684209585189819e-01</leafValues></_>
    <_>
      <internalNodes>
        0 -1 930714 -1.1922388803213835e-03</internalNodes>
      <leafValues>
        -8.3505845069885254e-01 4.2804419994354248e-01</leafValues></_>
    <_>
      <internalNodes>
        0 -1 32220 2.6265130145475268e-04</internalNodes>
      <leafValues>
        -4.8008301854133606e-01 8.1577652692794800e-01</leafValues></_>
    <_>
      <internalNodes>
        0 -1 314467 6.7372387275099754e-04</internalNodes>
      <leafValues>
        -5.1550906896591187e-01 6.0959953069686890e-01</leafValues></_>
    <_>
      <internalNodes>
        0 -1 1567212 3.1193188624456525e-04</internalNodes>
      <leafValues>
        -6.8073111772537231e-01 5.6195539236068726e-01</leafValues></_>
    <_>
      <internalNodes>
        0 -1 455 -6.8869054317474365e-02</internalNodes>
      <leafValues>
        8.6027234792709351e-01 -4.1016492247581482e-01</leafValues></_>
    <_>
      <internalNodes>
        0 -1 522340 3.5777152515947819e-04</internalNodes>
      <leafValues>
        -3.9285466074943542e-01 7.6888740062713623e-01</leafValues></_></weakClassifiers></stage3>
</opencv_storage>
