<?xml version="1.0"?>
<opencv_storage>
<stage9>
  <maxWeakCount>6</maxWeakCount>
  <stageThreshold>-2.1828849315643311e+00</stageThreshold>
  <weakClassifiers>
    <_>
      <internalNodes>
        0 -1 1749949 -5.7909004390239716e-03</internalNodes>
      <leafValues>
        1.6853933036327362e-01 -8.3489680290222168e-01</leafValues></_>
    <_>
      <internalNodes>
        0 -1 1602775 8.3717517554759979e-03</internalNodes>
      <leafValues>
        1.8607750535011292e-01 -8.8560354709625244e-01</leafValues></_>
    <_>
      <internalNodes>
        0 -1 302806 -3.8023453671485186e-03</internalNodes>
      <leafValues>
        5.2571475505828857e-01 -4.4053980708122253e-01</leafValues></_>
    <_>
      <internalNodes>
        0 -1 1614215 -3.0221248744055629e-04</internalNodes>
      <leafValues>
        3.1437462568283081e-01 -6.9812577962875366e-01</leafValues></_>
    <_>
      <internalNodes>
        0 -1 158801 6.4809995819814503e-05</internalNodes>
      <leafValues>
        -6.2012124061584473e-01 3.9596611261367798e-01</leafValues></_>
    <_>
      <internalNodes>
        0 -1 1147575 -5.9253880754113197e-03</internalNodes>
      <leafValues>
        2.4599190056324005e-01 -7.8777909278869629e-01</leafValues></_></weakClassifiers></stage9>
</opencv_storage>
