<?xml version="1.0"?>
<opencv_storage>
<stage15>
  <maxWeakCount>13</maxWeakCount>
  <stageThreshold>-1.6388788223266602e+00</stageThreshold>
  <weakClassifiers>
    <_>
      <internalNodes>
        0 -1 1882457 -4.1355863213539124e-02</internalNodes>
      <leafValues>
        1.6139240562915802e-01 -6.6277259588241577e-01</leafValues></_>
    <_>
      <internalNodes>
        0 -1 823653 -1.7892704345285892e-03</internalNodes>
      <leafValues>
        2.3333156108856201e-01 -5.3976297378540039e-01</leafValues></_>
    <_>
      <internalNodes>
        0 -1 1343856 9.1248954413458705e-04</internalNodes>
      <leafValues>
        -8.2221668958663940e-01 1.2731936573982239e-01</leafValues></_>
    <_>
      <internalNodes>
        0 -1 468130 -1.2499123113229871e-03</internalNodes>
      <leafValues>
        3.6156362295150757e-01 -4.4037052989006042e-01</leafValues></_>
    <_>
      <internalNodes>
        0 -1 1790138 1.4113781508058310e-03</internalNodes>
      <leafValues>
        -4.8448267579078674e-01 2.7265185117721558e-01</leafValues></_>
    <_>
      <internalNodes>
        0 -1 5377 2.7056798338890076e-02</internalNodes>
      <leafValues>
        -2.1938674151897430e-01 6.2229043245315552e-01</leafValues></_>
    <_>
      <internalNodes>
        0 -1 964382 9.7982096485793591e-04</internalNodes>
      <leafValues>
        -6.4554893970489502e-01 1.8274930119514465e-01</leafValues></_>
    <_>
      <internalNodes>
        0 -1 2042216 -5.9342698659747839e-04</internalNodes>
      <leafValues>
        5.3278106451034546e-01 -2.3314730823040009e-01</leafValues></_>
    <_>
      <internalNodes>
        0 -1 1206908 -5.4943244904279709e-03</internalNodes>
      <leafValues>
        -7.5704801082611084e-01 1.5879997611045837e-01</leafValues></_>
    <_>
      <internalNodes>
        0 -1 589007 -2.1410998888313770e-03</internalNodes>
      <leafValues>
        -7.1979469060897827e-01 1.5120008587837219e-01</leafValues></_>
    <_>
      <internalNodes>
        0 -1 32220 6.1713287141174078e-04</internalNodes>
      <leafValues>
        -2.3857773840427399e-01 4.9829801917076111e-01</leafValues></_>
    <_>
      <internalNodes>
        0 -1 75836 -2.5744556915014982e-03</internalNodes>
      <leafValues>
        4.1044881939888000e-01 -2.9463851451873779e-01</leafValues></_>
    <_>
      <internalNodes>
        0 -1 448542 1.2463801540434361e-03</internalNodes>
      <leafValues>
        -4.8339313268661499e-01 2.6301813125610352e-01</leafValues></_></weakClassifiers></stage15>
</opencv_storage>
