<?xml version="1.0"?>
<opencv_storage>
<stage17>
  <maxWeakCount>5</maxWeakCount>
  <stageThreshold>-1.1355315446853638e+00</stageThreshold>
  <weakClassifiers>
    <_>
      <internalNodes>
        0 -1 489827 4.3633200228214264e-02</internalNodes>
      <leafValues>
        -7.7235770225524902e-01 7.7519379556179047e-03</leafValues></_>
    <_>
      <internalNodes>
        0 -1 741210 1.5833167708478868e-04</internalNodes>
      <leafValues>
        -8.9326411485671997e-01 1.1227718740701675e-01</leafValues></_>
    <_>
      <internalNodes>
        0 -1 1171934 -6.8831276148557663e-03</internalNodes>
      <leafValues>
        2.9269546270370483e-01 -6.4056426286697388e-01</leafValues></_>
    <_>
      <internalNodes>
        0 -1 892797 2.8746965108439326e-04</internalNodes>
      <leafValues>
        2.4964477121829987e-01 -8.2356745004653931e-01</leafValues></_>
    <_>
      <internalNodes>
        0 -1 815352 -4.8778558266349137e-04</internalNodes>
      <leafValues>
        -7.4305087327957153e-01 2.0857106149196625e-01</leafValues></_></weakClassifiers></stage17>
</opencv_storage>
