<?xml version="1.0"?>
<opencv_storage>
<stage9>
  <maxWeakCount>6</maxWeakCount>
  <stageThreshold>-1.9387991428375244e+00</stageThreshold>
  <weakClassifiers>
    <_>
      <internalNodes>
        0 -1 22699 1.6339645953848958e-03</internalNodes>
      <leafValues>
        -7.0883882045745850e-01 6.8181818723678589e-01</leafValues></_>
    <_>
      <internalNodes>
        0 -1 1491790 -3.7245035171508789e-02</internalNodes>
      <leafValues>
        2.0601363480091095e-01 -8.3996146917343140e-01</leafValues></_>
    <_>
      <internalNodes>
        0 -1 848156 -1.0208127787336707e-03</internalNodes>
      <leafValues>
        4.6920371055603027e-01 -4.5943999290466309e-01</leafValues></_>
    <_>
      <internalNodes>
        0 -1 1660555 -3.2910076697589830e-05</internalNodes>
      <leafValues>
        3.1073153018951416e-01 -7.0351976156234741e-01</leafValues></_>
    <_>
      <internalNodes>
        0 -1 294133 -4.6426101471297443e-04</internalNodes>
      <leafValues>
        -6.9240123033523560e-01 3.4666034579277039e-01</leafValues></_>
    <_>
      <internalNodes>
        0 -1 1577533 3.0535393307218328e-05</internalNodes>
      <leafValues>
        -5.9486430883407593e-01 3.8438427448272705e-01</leafValues></_></weakClassifiers></stage9>
</opencv_storage>
